digraph Tree {
node [shape=box, style="filled, rounded", color="black", fontname=helvetica] ;
edge [fontname=helvetica] ;
0 [label="2080 ti <= 0.42\nmse = 4606603.97\nsamples = 193197\nvalue = 4944.01", fillcolor="#fae7d9"] ;
1 [label="CPU_THREADS <= 0.38\nmse = 2505027.8\nsamples = 134209\nvalue = 4046.91", fillcolor="#fcf1e9"] ;
0 -> 1 [labeldistance=2.5, labelangle=45, headlabel="True"] ;
2 [label="MEMORY_FREQUENCY <= -0.38\nmse = 1673136.71\nsamples = 122774\nvalue = 3863.85", fillcolor="#fdf3ed"] ;
1 -> 2 ;
3 [label="1080 <= 0.75\nmse = 1498256.99\nsamples = 51689\nvalue = 3345.19", fillcolor="#fef9f6"] ;
2 -> 3 ;
4 [label="rtx 2080 <= 0.15\nmse = 1483945.5\nsamples = 39270\nvalue = 3144.5", fillcolor="#fefcfa"] ;
3 -> 4 ;
5 [label="mse = 1198752.06\nsamples = 32116\nvalue = 2841.47", fillcolor="#ffffff"] ;
4 -> 5 ;
6 [label="mse = 501365.01\nsamples = 7154\nvalue = 4504.88", fillcolor="#fbece1"] ;
4 -> 6 ;
7 [label="GPU_COUNT <= 1.26\nmse = 1013414.53\nsamples = 12419\nvalue = 3979.81", fillcolor="#fcf2eb"] ;
3 -> 7 ;
8 [label="mse = 349176.67\nsamples = 10990\nvalue = 3706.85", fillcolor="#fdf5ef"] ;
7 -> 8 ;
9 [label="mse = 1142188.68\nsamples = 1429\nvalue = 6079.02", fillcolor="#f7dac5"] ;
7 -> 9 ;
10 [label="GPU_CORE_CLOCK_SPEED <= -0.81\nmse = 1462461.03\nsamples = 71085\nvalue = 4240.99", fillcolor="#fcefe6"] ;
2 -> 10 ;
11 [label="CPU_CORES <= -0.14\nmse = 1108915.54\nsamples = 11553\nvalue = 3111.48", fillcolor="#fefcfa"] ;
10 -> 11 ;
12 [label="mse = 812204.68\nsamples = 5875\nvalue = 2878.99", fillcolor="#fffffe"] ;
11 -> 12 ;
13 [label="mse = 1302122.2\nsamples = 5678\nvalue = 3352.04", fillcolor="#fef9f6"] ;
11 -> 13 ;
14 [label="gtx 1070 <= 1.96\nmse = 1235441.4\nsamples = 59532\nvalue = 4460.18", fillcolor="#fbede2"] ;
10 -> 14 ;
15 [label="mse = 1178153.14\nsamples = 54824\nvalue = 4550.2", fillcolor="#fbece0"] ;
14 -> 15 ;
16 [label="mse = 709453.11\nsamples = 4708\nvalue = 3411.97", fillcolor="#fef8f5"] ;
14 -> 16 ;
17 [label="CPU_CORES <= 2.62\nmse = 7214141.29\nsamples = 11435\nvalue = 6012.32", fillcolor="#f8dbc6"] ;
1 -> 17 ;
18 [label="intel core <= -0.37\nmse = 3921550.74\nsamples = 9510\nvalue = 5476.43", fillcolor="#f9e1d0"] ;
17 -> 18 ;
19 [label="GPU_CORE_CLOCK_SPEED <= -1.14\nmse = 2761973.69\nsamples = 6592\nvalue = 5087.63", fillcolor="#fae5d7"] ;
18 -> 19 ;
20 [label="mse = 2140405.93\nsamples = 758\nvalue = 3658.84", fillcolor="#fdf6f0"] ;
19 -> 20 ;
21 [label="mse = 2543027.36\nsamples = 5834\nvalue = 5273.27", fillcolor="#f9e3d3"] ;
19 -> 21 ;
22 [label="GPU_MEMORY_CLOCK_SPEED <= 1.05\nmse = 5428181.13\nsamples = 2918\nvalue = 6354.76", fillcolor="#f7d7c0"] ;
18 -> 22 ;
23 [label="mse = 5275586.01\nsamples = 2849\nvalue = 6426.8", fillcolor="#f7d6bf"] ;
22 -> 23 ;
24 [label="mse = 2666730.79\nsamples = 69\nvalue = 3380.23", fillcolor="#fef9f5"] ;
22 -> 24 ;
25 [label="GPU_COUNT <= 1.26\nmse = 15052668.46\nsamples = 1925\nvalue = 8659.77", fillcolor="#f1bd97"] ;
17 -> 25 ;
26 [label="nvidia <= -1.02\nmse = 3288675.47\nsamples = 978\nvalue = 5719.44", fillcolor="#f8decb"] ;
25 -> 26 ;
27 [label="mse = 745686.24\nsamples = 227\nvalue = 3896.43", fillcolor="#fdf3ec"] ;
26 -> 27 ;
28 [label="mse = 2749163.44\nsamples = 751\nvalue = 6270.47", fillcolor="#f7d8c2"] ;
26 -> 28 ;
29 [label="GPU_MEMORY_CLOCK_SPEED <= 0.14\nmse = 9052335.45\nsamples = 947\nvalue = 11696.35", fillcolor="#ea9a60"] ;
25 -> 29 ;
30 [label="mse = 5965064.6\nsamples = 536\nvalue = 10013.57", fillcolor="#eead7e"] ;
29 -> 30 ;
31 [label="mse = 4569337.27\nsamples = 411\nvalue = 13890.94", fillcolor="#e58139"] ;
29 -> 31 ;
32 [label="CPU_CORES <= 0.41\nmse = 3391009.91\nsamples = 58988\nvalue = 6985.09", fillcolor="#f5d0b5"] ;
0 -> 32 [labeldistance=2.5, labelangle=-45, headlabel="False"] ;
33 [label="GPU_COUNT <= 1.26\nmse = 1570054.93\nsamples = 46544\nvalue = 6544.42", fillcolor="#f6d5bd"] ;
32 -> 33 ;
34 [label="CPU_THREADS <= -0.08\nmse = 405062.9\nsamples = 43368\nvalue = 6260.1", fillcolor="#f7d8c2"] ;
33 -> 34 ;
35 [label="GPU_MEMORY_CLOCK_SPEED <= 0.23\nmse = 386860.24\nsamples = 20420\nvalue = 5943.85", fillcolor="#f8dcc7"] ;
34 -> 35 ;
36 [label="mse = 320769.71\nsamples = 11017\nvalue = 5683.45", fillcolor="#f8dfcc"] ;
35 -> 36 ;
37 [label="mse = 291760.88\nsamples = 9403\nvalue = 6248.95", fillcolor="#f7d8c2"] ;
35 -> 37 ;
38 [label="GPU_CORE_CLOCK_SPEED <= 0.45\nmse = 253080.01\nsamples = 22948\nvalue = 6541.5", fillcolor="#f6d5bd"] ;
34 -> 38 ;
39 [label="mse = 183032.28\nsamples = 11356\nvalue = 6249.71", fillcolor="#f7d8c2"] ;
38 -> 39 ;
40 [label="mse = 156578.86\nsamples = 11592\nvalue = 6827.35", fillcolor="#f6d2b8"] ;
38 -> 40 ;
41 [label="CPU_THREADS <= -0.01\nmse = 1300506.52\nsamples = 3176\nvalue = 10426.89", fillcolor="#eda977"] ;
33 -> 41 ;
42 [label="MEMORY_CHANNELS <= 0.36\nmse = 1007771.32\nsamples = 820\nvalue = 9370.96", fillcolor="#f0b58a"] ;
41 -> 42 ;
43 [label="mse = 884073.69\nsamples = 728\nvalue = 9502.42", fillcolor="#efb388"] ;
42 -> 43 ;
44 [label="mse = 767759.26\nsamples = 92\nvalue = 8330.73", fillcolor="#f2c09d"] ;
42 -> 44 ;
45 [label="amd <= 0.07\nmse = 879263.06\nsamples = 2356\nvalue = 10794.4", fillcolor="#eca470"] ;
41 -> 45 ;
46 [label="mse = 748548.33\nsamples = 2244\nvalue = 10867.6", fillcolor="#eca36f"] ;
45 -> 46 ;
47 [label="mse = 1239860.64\nsamples = 112\nvalue = 9327.77", fillcolor="#f0b58b"] ;
45 -> 47 ;
48 [label="intel <= -0.41\nmse = 6758913.85\nsamples = 12444\nvalue = 8633.32", fillcolor="#f1bd97"] ;
32 -> 48 ;
49 [label="GPU_COUNT <= 1.26\nmse = 3030307.21\nsamples = 5946\nvalue = 7677.2", fillcolor="#f4c8a8"] ;
48 -> 49 ;
50 [label="CASLATENCY <= -0.48\nmse = 336650.39\nsamples = 5007\nvalue = 7013.19", fillcolor="#f5cfb4"] ;
49 -> 50 ;
51 [label="mse = 321744.62\nsamples = 1076\nvalue = 7171.15", fillcolor="#f5ceb1"] ;
50 -> 51 ;
52 [label="mse = 332031.47\nsamples = 3931\nvalue = 6969.95", fillcolor="#f5d0b5"] ;
50 -> 52 ;
53 [label="CPU_MAX_CLOCK_SPEED_UNDER_LOAD <= -0.55\nmse = 2506210.02\nsamples = 939\nvalue = 11217.87", fillcolor="#eb9f69"] ;
49 -> 53 ;
54 [label="mse = 2198899.4\nsamples = 468\nvalue = 10640.71", fillcolor="#eda673"] ;
53 -> 54 ;
55 [label="mse = 2151678.76\nsamples = 471\nvalue = 11791.36", fillcolor="#ea995f"] ;
53 -> 55 ;
56 [label="CPU_THREADS <= 2.2\nmse = 8568814.66\nsamples = 6498\nvalue = 9508.22", fillcolor="#efb388"] ;
48 -> 56 ;
57 [label="GPU_COUNT <= 1.26\nmse = 6030587.52\nsamples = 3491\nvalue = 8645.4", fillcolor="#f1bd97"] ;
56 -> 57 ;
58 [label="mse = 397350.73\nsamples = 2220\nvalue = 6896.21", fillcolor="#f5d1b6"] ;
57 -> 58 ;
59 [label="mse = 1191264.88\nsamples = 1271\nvalue = 11700.63", fillcolor="#ea9a60"] ;
57 -> 59 ;
60 [label="CPU_THREADS <= 4.15\nmse = 9647906.31\nsamples = 3007\nvalue = 10509.92", fillcolor="#eda876"] ;
56 -> 60 ;
61 [label="mse = 9104877.97\nsamples = 2648\nvalue = 10353.88", fillcolor="#eda978"] ;
60 -> 61 ;
62 [label="mse = 12149053.69\nsamples = 359\nvalue = 11660.86", fillcolor="#ea9a61"] ;
60 -> 62 ;
}